{"learner":{"attributes":{"scikit_learn":"{\"_estimator_type\": \"classifier\"}"},"feature_names":[],"feature_types":[],"gradient_booster":{"model":{"gbtree_model_param":{"num_parallel_tree":"1","num_trees":"100"},"iteration_indptr":[0,1,2,3,4,5,6,7,8,9,10,11,12,13,14,15,16,17,18,19,20,21,22,23,24,25,26,27,28,29,30,31,32,33,34,35,36,37,38,39,40,41,42,43,44,45,46,47,48,49,50,51,52,53,54,55,56,57,58,59,60,61,62,63,64,65,66,67,68,69,70,71,72,73,74,75,76,77,78,79,80,81,82,83,84,85,86,87,88,89,90,91,92,93,94,95,96,97,98,99,100],"tree_info":[0,0,0,0,0,0,0,0,0,0,0,0,0,0,0,0,0,0,0,0,0,0,0,0,0,0,0,0,0,0,0,0,0,0,0,0,0,0,0,0,0,0,0,0,0,0,0,0,0,0,0,0,0,0,0,0,0,0,0,0,0,0,0,0,0,0,0,0,0,0,0,0,0,0,0,0,0,0,0,0,0,0,0,0,0,0,0,0,0,0,0,0,0,0,0,0,0,0,0,0],"trees":[{"base_weights":[7.8611195E-2,-2.2328682E0,7.8497565E-1,-8.690573E-1,-1.9672722E-1,-6.2062234E-2,3.9154062E-1],"categories":[],"categories_nodes":[],"categories_segments":[],"categories_sizes":[],"default_left":[0,0,0,0,0,0,0],"id":0,"left_children":[1,3,5,-1,-1,-1,-1],"loss_changes":[5.4638462E1,6.31192E0,1.3451294E1,0E0,0E0,0E0,0E0],"parents":[2147483647,0,0,1,1,2,2],"right_children":[2,4,6,-1,-1,-1,-1],"split_conditions":[-5.235523E-1,-7.4209034E-1,-8.2580113E-1,-8.690573E-1,-1.9672722E-1,-6.2062234E-2,3.9154062E-1],"split_indices":[18,21,9,0,0,0,0],"split_type":[0,0,0,0,0,0,0],"sum_hessian":[3.1390642E1,6.84155E0,2.4549091E1,4.225663E0,2.6158867E0,8.652549E0,1.5896543E1],"tree_param":{"num_deleted":"0","num_feature":"22","num_nodes":"7","size_leaf_vector":"1"}},{"base_weights":[7.058306E-2,-1.3197861E0,7.0958763E-1,-1.4252816E-1,-5.6600815E-1,-4.350248E-3,3.5092643E-1],"categories":[],"categories_nodes":[],"categories_segments":[],"categories_sizes":[],"default_left":[0,0,0,0,0,0,0],"id":1,"left_children":[1,3,5,-1,-1,-1,-1],"loss_changes":[2.8432255E1,3.9375076E0,7.2985697E0,0E0,0E0,0E0,0E0],"parents":[2147483647,0,0,1,1,2,2],"right_children":[2,4,6,-1,-1,-1,-1],"split_conditions":[-6.2893206E-1,-8.7596303E-1,-8.081411E-1,-1.4252816E-1,-5.6600815E-1,-4.350248E-3,3.5092643E-1],"split_indices":[21,10,11,0,0,0,0],"split_type":[0,0,0,0,0,0,0],"sum_hessian":[2.9947926E1,9.094471E0,2.0853455E1,4.390569E0,4.703902E0,8.479369E0,1.2374085E1],"tree_param":{"num_deleted":"0","num_feature":"22","num_nodes":"7","size_leaf_vector":"1"}},{"base_weights":[5.8337986E-2,-1.0297053E0,5.969471E-1,8.424279E-2,-5.023599E-1,-1.9675252E-1,2.8867167E-1],"categories":[],"categories_nodes":[],"categories_segments":[],"categories_sizes":[],"default_left":[0,0,0,0,0,0,0],"id":2,"left_children":[1,3,5,-1,-1,-1,-1],"loss_changes":[1.7429575E1,8.808924E0,9.703781E0,0E0,0E0,0E0,0E0],"parents":[2147483647,0,0,1,1,2,2],"right_children":[2,4,6,-1,-1,-1,-1],"split_conditions":[-2.2363068E-1,-5.9998775E-1,-9.731356E-1,8.424279E-2,-5.023599E-1,-1.9675252E-1,2.8867167E-1],"split_indices":[19,1,14,0,0,0,0],"split_type":[0,0,0,0,0,0,0],"sum_hessian":[2.7692892E1,8.867627E0,1.8825264E1,3.1105094E0,5.7571177E0,4.0703564E0,1.4754908E1],"tree_param":{"num_deleted":"0","num_feature":"22","num_nodes":"7","size_leaf_vector":"1"}},{"base_weights":[4.3100495E-2,-6.981385E-1,6.097448E-1,2.5301276E-2,-3.7740266E-1,-7.832551E-2,3.1539267E-1],"categories":[],"categories_nodes":[],"categories_segments":[],"categories_sizes":[],"default_left":[0,0,0,0,0,0,0],"id":3,"left_children":[1,3,5,-1,-1,-1,-1],"loss_changes":[1.1318698E1,5.2327633E0,6.131653E0,0E0,0E0,0E0,0E0],"parents":[2147483647,0,0,1,1,2,2],"right_children":[2,4,6,-1,-1,-1,-1],"split_conditions":[-1.5198134E-1,-5.9998775E-1,-2.7994972E-1,2.5301276E-2,-3.7740266E-1,-7.832551E-2,3.1539267E-1],"split_indices":[19,1,20,0,0,0,0],"split_type":[0,0,0,0,0,0,0],"sum_hessian":[2.4934578E1,1.070244E1,1.4232139E1,4.8180647E0,5.8843756E0,4.926021E0,9.306117E0],"tree_param":{"num_deleted":"0","num_feature":"22","num_nodes":"7","size_leaf_vector":"1"}},{"base_weights":[3.587769E-2,-6.094417E-1,6.454994E-1,-4.2330185E-1,9.655265E-3,-1.4055263E-1,2.8374192E-1],"categories":[],"categories_nodes":[],"categories_segments":[],"categories_sizes":[],"default_left":[0,0,0,0,0,0,0],"id":4,"left_children":[1,3,5,-1,-1,-1,-1],"loss_changes":[9.723431E0,6.2351894E0,4.68552E0,0E0,0E0,0E0,0E0],"parents":[2147483647,0,0,1,1,2,2],"right_children":[2,4,6,-1,-1,-1,-1],"split_conditions":[-8.8342965E-1,-4.4082853E-1,-2.4079105E-1,-4.2330185E-1,9.655265E-3,-1.4055263E-1,2.8374192E-1],"split_indices":[5,0,17,0,0,0,0],"split_type":[0,0,0,0,0,0,0],"sum_hessian":[2.271637E1,1.1035237E1,1.1681133E1,4.373029E0,6.662208E0,2.3613718E0,9.319761E0],"tree_param":{"num_deleted":"0","num_feature":"22","num_nodes":"7","size_leaf_vector":"1"}},{"base_weights":[2.8466336E-2,-7.113437E-1,4.3194357E-1,5.365966E-2,-3.52986E-1,-8.2629465E-2,2.3840256E-1],"categories":[],"categories_nodes":[],"categories_segments":[],"categories_sizes":[],"default_left":[0,0,0,0,0,0,0],"id":5,"left_children":[1,3,5,-1,-1,-1,-1],"loss_changes":[7.012208E0,3.6503348E0,4.1080723E0,0E0,0E0,0E0,0E0],"parents":[2147483647,0,0,1,1,2,2],"right_children":[2,4,6,-1,-1,-1,-1],"split_conditions":[-2.2363068E-1,-5.9998775E-1,-3.7511367E-1,5.365966E-2,-3.52986E-1,-8.2629465E-2,2.3840256E-1],"split_indices":[19,1,20,0,0,0,0],"split_type":[0,0,0,0,0,0,0],"sum_hessian":[2.1462397E1,7.3050075E0,1.415739E1,2.7187731E0,4.586234E0,4.880479E0,9.276911E0],"tree_param":{"num_deleted":"0","num_feature":"22","num_nodes":"7","size_leaf_vector":"1"}},{"base_weights":[1.6563548E-2,-3.3774358E-1,7.611592E-1,-3.4967956E-1,1.3887775E-3,2.7596164E-1,-1.9670313E-2],"categories":[],"categories_nodes":[],"categories_segments":[],"categories_sizes":[],"default_left":[0,0,0,0,0,0,0],"id":6,"left_children":[1,3,5,-1,-1,-1,-1],"loss_changes":[5.6633015E0,4.1372952E0,9.675808E-1,0E0,0E0,0E0,0E0],"parents":[2147483647,0,0,1,1,2,2],"right_children":[2,4,6,-1,-1,-1,-1],"split_conditions":[-8.081411E-1,-6.630301E-1,-4.887045E-1,-3.4967956E-1,1.3887775E-3,2.7596164E-1,-1.9670313E-2],"split_indices":[11,0,1,0,0,0,0],"split_type":[0,0,0,0,0,0,0],"sum_hessian":[1.9492441E1,1.3577942E1,5.914499E0,3.269016E0,1.0308926E1,4.8673997E0,1.0470988E0],"tree_param":{"num_deleted":"0","num_feature":"22","num_nodes":"7","size_leaf_vector":"1"}},{"base_weights":[1.6091123E-2,-2.7458978E-1,2.6753357E-1,-1.2044452E-1,1.7470379E-1],"categories":[],"categories_nodes":[],"categories_segments":[],"categories_sizes":[],"default_left":[0,0,0,0,0],"id":7,"left_children":[1,-1,3,-1,-1],"loss_changes":[4.841913E0,0E0,3.6521773E0,0E0,0E0],"parents":[2147483647,0,0,2,2],"right_children":[2,-1,4,-1,-1],"split_conditions":[-7.4209034E-1,-2.7458978E-1,-6.630301E-1,-1.2044452E-1,1.7470379E-1],"split_indices":[21,0,0,0,0],"split_type":[0,0,0,0,0],"sum_hessian":[1.8629442E1,3.3989384E0,1.5230505E1,4.785475E0,1.044503E1],"tree_param":{"num_deleted":"0","num_feature":"22","num_nodes":"5","size_leaf_vector":"1"}},{"base_weights":[1.1973559E-3,-4.6579456E-1,4.4420058E-1,8.09249E-2,-2.674913E-1,-8.261127E-2,2.9061654E-1],"categories":[],"categories_nodes":[],"categories_segments":[],"categories_sizes":[],"default_left":[0,0,0,0,0,0,0],"id":8,"left_children":[1,3,5,-1,-1,-1,-1],"loss_changes":[4.0198536E0,3.2038324E0,4.029817E0,0E0,0E0,0E0,0E0],"parents":[2147483647,0,0,1,1,2,2],"right_children":[2,4,6,-1,-1,-1,-1],"split_conditions":[-5.18868E-1,-3.0271757E-1,-9.5572226E-2,8.09249E-2,-2.674913E-1,-8.261127E-2,2.9061654E-1],"split_indices":[21,16,19,0,0,0,0],"split_type":[0,0,0,0,0,0,0],"sum_hessian":[1.7430817E1,8.460613E0,8.970204E0,3.236635E0,5.223978E0,3.9821894E0,4.9880147E0],"tree_param":{"num_deleted":"0","num_feature":"22","num_nodes":"7","size_leaf_vector":"1"}},{"base_weights":[9.651476E-3,2.725882E-1,-6.987828E-1,-6.029745E-2,2.7420205E-1,-2.8018153E-1,-9.694053E-5],"categories":[],"categories_nodes":[],"categories_segments":[],"categories_sizes":[],"default_left":[0,0,0,0,0,0,0],"id":9,"left_children":[1,3,5,-1,-1,-1,-1],"loss_changes":[3.418892E0,4.241838E0,8.1633925E-1,0E0,0E0,0E0,0E0],"parents":[2147483647,0,0,1,1,2,2],"right_children":[2,4,6,-1,-1,-1,-1],"split_conditions":[2.6613185E-1,-4.4082853E-1,-2.2363068E-1,-6.029745E-2,2.7420205E-1,-2.8018153E-1,-9.694053E-5],"split_indices":[0,0,19,0,0,0,0],"split_type":[0,0,0,0,0,0,0],"sum_hessian":[1.633158E1,1.2359537E1,3.9720414E0,7.505002E0,4.8545356E0,2.7193558E0,1.2526855E0],"tree_param":{"num_deleted":"0","num_feature":"22","num_nodes":"7","size_leaf_vector":"1"}},{"base_weights":[6.5192776E-3,-2.1094492E-1,2.3320667E-1,1.3481427E-3,-2.6422215E-1],"categories":[],"categories_nodes":[],"categories_segments":[],"categories_sizes":[],"default_left":[0,0,0,0,0],"id":10,"left_children":[1,3,-1,-1,-1],"loss_changes":[2.8729556E0,1.9362979E0,0E0,0E0,0E0],"parents":[2147483647,0,0,1,1],"right_children":[2,4,-1,-1,-1],"split_conditions":[-8.105521E-1,-4.5916286E-1,2.3320667E-1,1.3481427E-3,-2.6422215E-1],"split_indices":[12,1,0,0,0],"split_type":[0,0,0,0,0],"sum_hessian":[1.516052E1,1.239114E1,2.7693794E0,1.0127072E1,2.2640674E0],"tree_param":{"num_deleted":"0","num_feature":"22","num_nodes":"5","size_leaf_vector":"1"}},{"base_weights":[4.5743743E-3,-3.1716967E-1,4.3336833E-1,2.8331956E-2,-2.6366708E-1,2.6959103E-1,-1.08901165E-1],"categories":[],"categories_nodes":[],"categories_segments":[],"categories_sizes":[],"default_left":[0,0,0,0,0,0,0],"id":11,"left_children":[1,3,5,-1,-1,-1,-1],"loss_changes":[2.256163E0,2.2450955E0,2.9221172E0,0E0,0E0,0E0,0E0],"parents":[2147483647,0,0,1,1,2,2],"right_children":[2,4,6,-1,-1,-1,-1],"split_conditions":[-8.8342965E-1,-8.8691235E-1,-5.2923644E-1,2.8331956E-2,-2.6366708E-1,2.6959103E-1,-1.08901165E-1],"split_indices":[5,3,1,0,0,0,0],"split_type":[0,0,0,0,0,0,0],"sum_hessian":[1.43572235E1,8.351229E0,6.005994E0,5.2996798E0,3.0515494E0,3.7100441E0,2.29595E0],"tree_param":{"num_deleted":"0","num_feature":"22","num_nodes":"7","size_leaf_vector":"1"}},{"base_weights":[4.9013216E-3,-5.282261E-1,2.8105173E-1,7.0399307E-3,-2.5417432E-1,2.4797922E-1,8.605073E-3],"categories":[],"categories_nodes":[],"categories_segments":[],"categories_sizes":[],"default_left":[0,0,0,0,0,0,0],"id":12,"left_children":[1,3,5,-1,-1,-1,-1],"loss_changes":[2.3045588E0,9.605489E-1,1.3944397E0,0E0,0E0,0E0,0E0],"parents":[2147483647,0,0,1,1,2,2],"right_children":[2,4,6,-1,-1,-1,-1],"split_conditions":[-2.2363068E-1,-5.9998775E-1,-8.9580685E-1,7.0399307E-3,-2.5417432E-1,2.4797922E-1,8.605073E-3],"split_indices":[19,1,3,0,0,0,0],"split_type":[0,0,0,0,0,0,0],"sum_hessian":[1.3645097E1,4.344643E0,9.300454E0,1.931277E0,2.4133658E0,2.2219305E0,7.078523E0],"tree_param":{"num_deleted":"0","num_feature":"22","num_nodes":"7","size_leaf_vector":"1"}},{"base_weights":[2.5457717E-3,-2.8441736E-1,4.086829E-1,-2.5857863E-1,1.368975E-2,-1.2868202E-1,2.1501638E-1],"categories":[],"categories_nodes":[],"categories_segments":[],"categories_sizes":[],"default_left":[0,0,0,0,0,0,0],"id":13,"left_children":[1,3,5,-1,-1,-1,-1],"loss_changes":[1.7463338E0,1.7139041E0,1.9074739E0,0E0,0E0,0E0,0E0],"parents":[2147483647,0,0,1,1,2,2],"right_children":[2,4,6,-1,-1,-1,-1],"split_conditions":[-8.8342965E-1,-6.630301E-1,-2.4079105E-1,-2.5857863E-1,1.368975E-2,-1.2868202E-1,2.1501638E-1],"split_indices":[5,0,17,0,0,0,0],"split_type":[0,0,0,0,0,0,0],"sum_hessian":[1.2986684E1,7.785445E0,5.201238E0,2.2452548E0,5.5401907E0,1.2929468E0,3.9082913E0],"tree_param":{"num_deleted":"0","num_feature":"22","num_nodes":"7","size_leaf_vector":"1"}},{"base_weights":[-6.78876E-3,-4.735154E-1,2.2774144E-1,1.06541775E-2,-2.3607115E-1,-6.173014E-2,1.5287401E-1],"categories":[],"categories_nodes":[],"categories_segments":[],"categories_sizes":[],"default_left":[0,0,0,0,0,0,0],"id":14,"left_children":[1,3,5,-1,-1,-1,-1],"loss_changes":[1.5674626E0,7.9117465E-1,1.2716889E0,0E0,0E0,0E0,0E0],"parents":[2147483647,0,0,1,1,2,2],"right_children":[2,4,6,-1,-1,-1,-1],"split_conditions":[-2.2363068E-1,-5.9998775E-1,-5.18868E-1,1.06541775E-2,-2.3607115E-1,-6.173014E-2,1.5287401E-1],"split_indices":[19,1,21,0,0,0,0],"split_type":[0,0,0,0,0,0,0],"sum_hessian":[1.2334585E1,3.7844157E0,8.550169E0,1.7799551E0,2.0044608E0,3.4750106E0,5.0751586E0],"tree_param":{"num_deleted":"0","num_feature":"22","num_nodes":"7","size_leaf_vector":"1"}},{"base_weights":[-1.6351089E-2,-1.8077461E-1,1.6184427E-1,5.0917704E-2,-2.131723E-1],"categories":[],"categories_nodes":[],"categories_segments":[],"categories_sizes":[],"default_left":[0,0,0,0,0],"id":15,"left_children":[1,3,-1,-1,-1],"loss_changes":[1.2558999E0,2.0760384E0,0E0,0E0,0E0],"parents":[2147483647,0,0,1,1],"right_children":[2,4,-1,-1,-1],"split_conditions":[-8.081411E-1,-9.007581E-1,1.6184427E-1,5.0917704E-2,-2.131723E-1],"split_indices":[11,12,0,0,0],"split_type":[0,0,0,0,0],"sum_hessian":[1.1674823E1,9.530364E0,2.1444588E0,6.1447897E0,3.3855746E0],"tree_param":{"num_deleted":"0","num_feature":"22","num_nodes":"5","size_leaf_vector":"1"}},{"base_weights":[-1.000194E-2,-2.6694998E-1,3.594608E-1,-2.5418463E-1,3.514136E-2,-1.0520617E-1,2.4594048E-1],"categories":[],"categories_nodes":[],"categories_segments":[],"categories_sizes":[],"default_left":[0,0,0,0,0,0,0],"id":16,"left_children":[1,3,5,-1,-1,-1,-1],"loss_changes":[1.276224E0,1.8616486E0,2.0939732E0,0E0,0E0,0E0,0E0],"parents":[2147483647,0,0,1,1,2,2],"right_children":[2,4,6,-1,-1,-1,-1],"split_conditions":[-9.5572226E-2,-2.3354024E-1,-4.0227407E-1,-2.5418463E-1,3.514136E-2,-1.0520617E-1,2.4594048E-1],"split_indices":[19,17,18,0,0,0,0],"split_type":[0,0,0,0,0,0,0],"sum_hessian":[1.1432657E1,6.906736E0,4.525922E0,2.270379E0,4.636357E0,1.8736786E0,2.6522431E0],"tree_param":{"num_deleted":"0","num_feature":"22","num_nodes":"7","size_leaf_vector":"1"}},{"base_weights":[-1.0654685E-2,-3.8141087E-1,2.4746963E-1,6.25735E-2,-2.092272E-1,-9.277544E-2,1.8178059E-1],"categories":[],"categories_nodes":[],"categories_segments":[],"categories_sizes":[],"default_left":[0,0,0,0,0,0,0],"id":17,"left_children":[1,3,5,-1,-1,-1,-1],"loss_changes":[1.2203745E0,1.119215E0,1.692693E0,0E0,0E0,0E0,0E0],"parents":[2147483647,0,0,1,1,2,2],"right_children":[2,4,6,-1,-1,-1,-1],"split_conditions":[-9.731356E-1,-9.817933E-1,-2.3354024E-1,6.25735E-2,-2.092272E-1,-9.277544E-2,1.8178059E-1],"split_indices":[14,14,17,0,0,0,0],"split_type":[0,0,0,0,0,0,0],"sum_hessian":[1.0765651E1,4.2227254E0,6.5429254E0,1.5914655E0,2.6312602E0,2.616546E0,3.9263797E0],"tree_param":{"num_deleted":"0","num_feature":"22","num_nodes":"7","size_leaf_vector":"1"}},{"base_weights":[-1.1084336E-2,-4.2748386E-1,2.0733249E-1,1.4365837E-2,-2.1701507E-1,2.1286581E-1,-1.594434E-2],"categories":[],"categories_nodes":[],"categories_segments":[],"categories_sizes":[],"default_left":[0,0,0,0,0,0,0],"id":18,"left_children":[1,3,5,-1,-1,-1,-1],"loss_changes":[1.113108E0,6.2573546E-1,1.0923822E0,0E0,0E0,0E0,0E0],"parents":[2147483647,0,0,1,1,2,2],"right_children":[2,4,6,-1,-1,-1,-1],"split_conditions":[-2.2363068E-1,-5.9998775E-1,-8.9580685E-1,1.4365837E-2,-2.1701507E-1,2.1286581E-1,-1.594434E-2],"split_indices":[19,1,3,0,0,0,0],"split_type":[0,0,0,0,0,0,0],"sum_hessian":[1.0264341E1,3.2022457E0,7.0620956E0,1.5501155E0,1.6521304E0,1.8230804E0,5.2390156E0],"tree_param":{"num_deleted":"0","num_feature":"22","num_nodes":"7","size_leaf_vector":"1"}},{"base_weights":[-9.3584135E-3,-2.4020684E-1,3.332048E-1,3.8922288E-2,-2.0664823E-1,-9.5860705E-2,2.3094466E-1],"categories":[],"categories_nodes":[],"categories_segments":[],"categories_sizes":[],"default_left":[0,0,0,0,0,0,0],"id":19,"left_children":[1,3,5,-1,-1,-1,-1],"loss_changes":[9.376501E-1,1.2610793E0,1.6096509E0,0E0,0E0,0E0,0E0],"parents":[2147483647,0,0,1,1,2,2],"right_children":[2,4,6,-1,-1,-1,-1],"split_conditions":[-9.5572226E-2,-5.9998775E-1,-4.0227407E-1,3.8922288E-2,-2.0664823E-1,-9.5860705E-2,2.3094466E-1],"split_indices":[19,1,18,0,0,0,0],"split_type":[0,0,0,0,0,0,0],"sum_hessian":[9.844842E0,6.0599346E0,3.7849073E0,3.7107358E0,2.349199E0,1.6244587E0,2.1604486E0],"tree_param":{"num_deleted":"0","num_feature":"22","num_nodes":"7","size_leaf_vector":"1"}},{"base_weights":[-8.033321E-3,-3.9837337E-1,2.0432968E-1,1.2514752E-1,-2.568071E-1,1.4775099E-1,-1.0710697E-1],"categories":[],"categories_nodes":[],"categories_segments":[],"categories_sizes":[],"default_left":[0,0,0,0,0,0,0],"id":20,"left_children":[1,3,5,-1,-1,-1,-1],"loss_changes":[9.283565E-1,1.8272902E0,1.3532166E0,0E0,0E0,0E0,0E0],"parents":[2147483647,0,0,1,1,2,2],"right_children":[2,4,6,-1,-1,-1,-1],"split_conditions":[-6.630301E-1,-7.180681E-1,2.6613185E-1,1.2514752E-1,-2.568071E-1,1.4775099E-1,-1.0710697E-1],"split_indices":[0,0,0,0,0,0,0],"split_type":[0,0,0,0,0,0,0],"sum_hessian":[9.217376E0,2.9391246E0,6.2782516E0,1.0882835E0,1.850841E0,4.229608E0,2.0486434E0],"tree_param":{"num_deleted":"0","num_feature":"22","num_nodes":"7","size_leaf_vector":"1"}},{"base_weights":[-1.523843E-2,-2.7683702E-1,2.6693258E-1,-1.7236517E-1,8.5341185E-2,2.1297297E-1,-8.7458655E-2],"categories":[],"categories_nodes":[],"categories_segments":[],"categories_sizes":[],"default_left":[0,0,0,0,0,0,0],"id":21,"left_children":[1,3,5,-1,-1,-1,-1],"loss_changes":[7.875903E-1,1.083894E0,1.4835968E0,0E0,0E0,0E0,0E0],"parents":[2147483647,0,0,1,1,2,2],"right_children":[2,4,6,-1,-1,-1,-1],"split_conditions":[-4.4082853E-1,-8.9884394E-1,2.6613185E-1,-1.7236517E-1,8.5341185E-2,2.1297297E-1,-8.7458655E-2],"split_indices":[0,5,0,0,0,0,0],"split_type":[0,0,0,0,0,0,0],"sum_hessian":[8.668608E0,4.508093E0,4.1605153E0,2.9302933E0,1.5777994E0,2.1689186E0,1.9915968E0],"tree_param":{"num_deleted":"0","num_feature":"22","num_nodes":"7","size_leaf_vector":"1"}},{"base_weights":[-4.457219E-3,-2.9484773E-1,2.0210625E-1,6.7586765E-2,-1.6507217E-1,-7.136964E-2,1.4961669E-1],"categories":[],"categories_nodes":[],"categories_segments":[],"categories_sizes":[],"default_left":[0,0,0,0,0,0,0],"id":22,"left_children":[1,3,5,-1,-1,-1,-1],"loss_changes":[6.054182E-1,6.8042666E-1,8.900455E-1,0E0,0E0,0E0,0E0],"parents":[2147483647,0,0,1,1,2,2],"right_children":[2,4,6,-1,-1,-1,-1],"split_conditions":[-9.731356E-1,-9.817933E-1,-2.3354024E-1,6.7586765E-2,-1.6507217E-1,-7.136964E-2,1.4961669E-1],"split_indices":[14,14,17,0,0,0,0],"split_type":[0,0,0,0,0,0,0],"sum_hessian":[8.099543E0,3.1889982E0,4.910544E0,1.0889988E0,2.0999992E0,2.057046E0,2.8534982E0],"tree_param":{"num_deleted":"0","num_feature":"22","num_nodes":"7","size_leaf_vector":"1"}},{"base_weights":[-4.618737E-3,-3.5531878E-1,1.6870114E-1,6.6157533E-3,-1.7261595E-1,-3.142372E-2,1.4744188E-1],"categories":[],"categories_nodes":[],"categories_segments":[],"categories_sizes":[],"default_left":[0,0,0,0,0,0,0],"id":23,"left_children":[1,3,5,-1,-1,-1,-1],"loss_changes":[5.9263813E-1,2.8014916E-1,6.289941E-1,0E0,0E0,0E0,0E0],"parents":[2147483647,0,0,1,1,2,2],"right_children":[2,4,6,-1,-1,-1,-1],"split_conditions":[-2.2363068E-1,-5.9998775E-1,-4.4082853E-1,6.6157533E-3,-1.7261595E-1,-3.142372E-2,1.4744188E-1],"split_indices":[19,1,0,0,0,0,0],"split_type":[0,0,0,0,0,0,0],"sum_hessian":[7.763846E0,2.2205832E0,5.5432625E0,1.1493956E0,1.0711877E0,3.3666084E0,2.176654E0],"tree_param":{"num_deleted":"0","num_feature":"22","num_nodes":"7","size_leaf_vector":"1"}},{"base_weights":[-9.086982E-3,-2.993297E-1,1.578365E-1,3.2609034E-2,-1.768827E-1,-1.1858059E-1,1.3415542E-1],"categories":[],"categories_nodes":[],"categories_segments":[],"categories_sizes":[],"default_left":[0,0,0,0,0,0,0],"id":24,"left_children":[1,3,5,-1,-1,-1,-1],"loss_changes":[4.5576513E-1,4.6963558E-1,1.1382867E0,0E0,0E0,0E0,0E0],"parents":[2147483647,0,0,1,1,2,2],"right_children":[2,4,6,-1,-1,-1,-1],"split_conditions":[-6.2893206E-1,-6.1404962E-2,-2.2694193E-1,3.2609034E-2,-1.768827E-1,-1.1858059E-1,1.3415542E-1],"split_indices":[21,16,16,0,0,0,0],"split_type":[0,0,0,0,0,0,0],"sum_hessian":[7.432077E0,2.4240243E0,5.008053E0,1.2676775E0,1.1563468E0,1.5943325E0,3.4137201E0],"tree_param":{"num_deleted":"0","num_feature":"22","num_nodes":"7","size_leaf_vector":"1"}},{"base_weights":[-2.232163E-2,-1.9440547E-1,2.50384E-1,6.0999442E-2,-1.7426014E-1,-8.897064E-2,1.9179335E-1],"categories":[],"categories_nodes":[],"categories_segments":[],"categories_sizes":[],"default_left":[0,0,0,0,0,0,0],"id":25,"left_children":[1,3,5,-1,-1,-1,-1],"loss_changes":[4.285894E-1,9.6757966E-1,9.488518E-1,0E0,0E0,0E0,0E0],"parents":[2147483647,0,0,1,1,2,2],"right_children":[2,4,6,-1,-1,-1,-1],"split_conditions":[-9.5572226E-2,-3.204003E-1,-4.0227407E-1,6.0999442E-2,-1.7426014E-1,-8.897064E-2,1.9179335E-1],"split_indices":[19,18,18,0,0,0,0],"split_type":[0,0,0,0,0,0,0],"sum_hessian":[7.095626E0,4.52645E0,2.569176E0,2.4642096E0,2.0622406E0,1.1663681E0,1.4028077E0],"tree_param":{"num_deleted":"0","num_feature":"22","num_nodes":"7","size_leaf_vector":"1"}},{"base_weights":[-1.5852315E-2,-9.9972434E-2,1.4541507E-1,-4.2700697E-2,1.546752E-1],"categories":[],"categories_nodes":[],"categories_segments":[],"categories_sizes":[],"default_left":[0,0,0,0,0],"id":26,"left_children":[1,-1,3,-1,-1],"loss_changes":[4.471526E-1,0E0,6.9769895E-1,0E0,0E0],"parents":[2147483647,0,0,2,2],"right_children":[2,-1,4,-1,-1],"split_conditions":[-2.3354024E-1,-9.9972434E-2,-8.94027E-1,-4.2700697E-2,1.546752E-1],"split_indices":[17,0,5,0,0],"split_type":[0,0,0,0,0],"sum_hessian":[6.789354E0,1.928162E0,4.861192E0,3.0813725E0,1.7798195E0],"tree_param":{"num_deleted":"0","num_feature":"22","num_nodes":"5","size_leaf_vector":"1"}},{"base_weights":[-8.317015E-3,-9.399708E-2,1.5238588E-1,1.6944306E-1,-2.7571732E-2],"categories":[],"categories_nodes":[],"categories_segments":[],"categories_sizes":[],"default_left":[0,0,0,0,0],"id":27,"left_children":[1,-1,3,-1,-1],"loss_changes":[4.1991502E-1,0E0,6.20713E-1,0E0,0E0],"parents":[2147483647,0,0,2,2],"right_children":[2,-1,4,-1,-1],"split_conditions":[-2.2363068E-1,-9.399708E-2,-8.9580685E-1,1.6944306E-1,-2.7571732E-2],"split_indices":[19,0,3,0,0],"split_type":[0,0,0,0,0],"sum_hessian":[6.5928926E0,1.9473004E0,4.645592E0,1.2400503E0,3.405542E0],"tree_param":{"num_deleted":"0","num_feature":"22","num_nodes":"5","size_leaf_vector":"1"}},{"base_weights":[1.3784758E-3,1.9117257E-1,-2.1114519E-1,-1.04785465E-1,1.6529925E-1,-1.4437771E-1,5.459849E-2],"categories":[],"categories_nodes":[],"categories_segments":[],"categories_sizes":[],"default_left":[0,0,0,0,0,0,0],"id":28,"left_children":[1,3,5,-1,-1,-1,-1],"loss_changes":[3.406954E-1,1.0594088E0,5.110538E-1,0E0,0E0,0E0,0E0],"parents":[2147483647,0,0,1,1,2,2],"right_children":[2,4,6,-1,-1,-1,-1],"split_conditions":[-9.007581E-1,-4.558933E-1,-8.2580113E-1,-1.04785465E-1,1.6529925E-1,-1.4437771E-1,5.459849E-2],"split_indices":[12,20,9,0,0,0,0],"split_type":[0,0,0,0,0,0,0],"sum_hessian":[6.4457603E0,3.4580321E0,2.987728E0,1.393814E0,2.064218E0,1.6381013E0,1.3496269E0],"tree_param":{"num_deleted":"0","num_feature":"22","num_nodes":"7","size_leaf_vector":"1"}},{"base_weights":[-2.2971588E-3,-2.5220335E-1,1.522787E-1,-1.3083908E-1,1.89495E-2,-8.72896E-2,1.1538737E-1],"categories":[],"categories_nodes":[],"categories_segments":[],"categories_sizes":[],"default_left":[0,0,0,0,0,0,0],"id":29,"left_children":[1,3,5,-1,-1,-1,-1],"loss_changes":[3.1578222E-1,2.0855434E-1,6.330119E-1,0E0,0E0,0E0,0E0],"parents":[2147483647,0,0,1,1,2,2],"right_children":[2,4,6,-1,-1,-1,-1],"split_conditions":[-6.2893206E-1,4.2477444E-1,-2.2694193E-1,-1.3083908E-1,1.89495E-2,-8.72896E-2,1.1538737E-1],"split_indices":[21,15,16,0,0,0,0],"split_type":[0,0,0,0,0,0,0],"sum_hessian":[6.1804523E0,2.1205423E0,4.0599103E0,1.097527E0,1.0230153E0,1.3094983E0,2.7504117E0],"tree_param":{"num_deleted":"0","num_feature":"22","num_nodes":"7","size_leaf_vector":"1"}},{"base_weights":[-1.3494877E-2,-8.4856234E-2,1.3193154E-1,-5.2097067E-2,1.231088E-1],"categories":[],"categories_nodes":[],"categories_segments":[],"categories_sizes":[],"default_left":[0,0,0,0,0],"id":30,"left_children":[1,-1,3,-1,-1],"loss_changes":[3.0944815E-1,0E0,5.131377E-1,0E0,0E0],"parents":[2147483647,0,0,2,2],"right_children":[2,-1,4,-1,-1],"split_conditions":[-2.3354024E-1,-8.4856234E-2,-9.731356E-1,-5.2097067E-2,1.231088E-1],"split_indices":[17,0,14,0,0],"split_type":[0,0,0,0,0],"sum_hessian":[5.947082E0,1.7537615E0,4.1933203E0,2.178566E0,2.0147545E0],"tree_param":{"num_deleted":"0","num_feature":"22","num_nodes":"5","size_leaf_vector":"1"}},{"base_weights":[-1.076202E-2,7.53479E-2,-1.635399E-1,4.4085946E-2,-1.0748244E-1],"categories":[],"categories_nodes":[],"categories_segments":[],"categories_sizes":[],"default_left":[0,0,0,0,0],"id":31,"left_children":[1,-1,3,-1,-1],"loss_changes":[3.1247783E-1,0E0,3.4827906E-1,0E0,0E0],"parents":[2147483647,0,0,2,2],"right_children":[2,-1,4,-1,-1],"split_conditions":[-8.181818E-1,7.53479E-2,-9.009113E-1,4.4085946E-2,-1.0748244E-1],"split_indices":[4,0,12,0,0],"split_type":[0,0,0,0,0],"sum_hessian":[5.7823935E0,1.8930331E0,3.8893604E0,1.5936884E0,2.295672E0],"tree_param":{"num_deleted":"0","num_feature":"22","num_nodes":"5","size_leaf_vector":"1"}},{"base_weights":[-5.8586015E-3,-1.658927E-1,2.4536395E-1,4.4115685E-2,-1.4598247E-1,-5.1954262E-2,1.6170269E-1],"categories":[],"categories_nodes":[],"categories_segments":[],"categories_sizes":[],"default_left":[0,0,0,0,0,0,0],"id":32,"left_children":[1,3,5,-1,-1,-1,-1],"loss_changes":[3.1065544E-1,5.431062E-1,4.6405122E-1,0E0,0E0,0E0,0E0],"parents":[2147483647,0,0,1,1,2,2],"right_children":[2,4,6,-1,-1,-1,-1],"split_conditions":[-9.5572226E-2,-5.9998775E-1,-4.8062664E-1,4.4115685E-2,-1.4598247E-1,-5.1954262E-2,1.6170269E-1],"split_indices":[19,1,21,0,0,0,0],"split_type":[0,0,0,0,0,0,0],"sum_hessian":[5.7145104E0,3.6982834E0,2.0162268E0,2.1458812E0,1.5524024E0,1.0004624E0,1.0157644E0],"tree_param":{"num_deleted":"0","num_feature":"22","num_nodes":"7","size_leaf_vector":"1"}},{"base_weights":[-2.5862996E-3,-1.9122757E-1,1.9264409E-1,3.1342875E-2,-1.02351986E-1,1.676834E-1,-7.119867E-2],"categories":[],"categories_nodes":[],"categories_segments":[],"categories_sizes":[],"default_left":[0,0,0,0,0,0,0],"id":33,"left_children":[1,3,5,-1,-1,-1,-1],"loss_changes":[2.7423915E-1,2.0325755E-1,7.100277E-1,0E0,0E0,0E0,0E0],"parents":[2147483647,0,0,1,1,2,2],"right_children":[2,4,6,-1,-1,-1,-1],"split_conditions":[-4.4082853E-1,-6.8508255E-1,2.6613185E-1,3.1342875E-2,-1.02351986E-1,1.676834E-1,-7.119867E-2],"split_indices":[0,0,0,0,0,0,0],"split_type":[0,0,0,0,0,0,0],"sum_hessian":[5.446101E0,2.7802188E0,2.6658823E0,1.0374774E0,1.7427416E0,1.2775581E0,1.3883241E0],"tree_param":{"num_deleted":"0","num_feature":"22","num_nodes":"7","size_leaf_vector":"1"}},{"base_weights":[3.971456E-3,-7.900799E-2,1.450747E-1,-2.3027193E-2,1.1346365E-1],"categories":[],"categories_nodes":[],"categories_segments":[],"categories_sizes":[],"default_left":[0,0,0,0,0],"id":34,"left_children":[1,-1,3,-1,-1],"loss_changes":[2.725747E-1,0E0,2.7269518E-1,0E0,0E0],"parents":[2147483647,0,0,2,2],"right_children":[2,-1,4,-1,-1],"split_conditions":[-2.2363068E-1,-7.900799E-2,-4.4082853E-1,-2.3027193E-2,1.1346365E-1],"split_indices":[19,0,0,0,0],"split_type":[0,0,0,0,0],"sum_hessian":[5.213138E0,1.5016695E0,3.7114685E0,2.2455628E0,1.4659057E0],"tree_param":{"num_deleted":"0","num_feature":"22","num_nodes":"5","size_leaf_vector":"1"}},{"base_weights":[5.3400914E-3,-1.4350212E-1,6.876704E-2,5.404512E-2,-1.3194068E-1],"categories":[],"categories_nodes":[],"categories_segments":[],"categories_sizes":[],"default_left":[0,0,0,0,0],"id":35,"left_children":[1,3,-1,-1,-1],"loss_changes":[2.356198E-1,4.886398E-1,0E0,0E0,0E0],"parents":[2147483647,0,0,1,1],"right_children":[2,4,-1,-1,-1],"split_conditions":[-8.8342965E-1,-9.0246516E-1,6.876704E-2,5.404512E-2,-1.3194068E-1],"split_indices":[5,6,0,0,0],"split_type":[0,0,0,0,0],"sum_hessian":[5.083604E0,3.2692032E0,1.8144008E0,1.7498355E0,1.5193677E0],"tree_param":{"num_deleted":"0","num_feature":"22","num_nodes":"5","size_leaf_vector":"1"}},{"base_weights":[1.735589E-3,1.4837879E-1,-6.8411425E-2,1.17477424E-1,-1.9160792E-2],"categories":[],"categories_nodes":[],"categories_segments":[],"categories_sizes":[],"default_left":[0,0,0,0,0],"id":36,"left_children":[1,3,-1,-1,-1],"loss_changes":[2.3446777E-1,2.4391198E-1,0E0,0E0,0E0],"parents":[2147483647,0,0,1,1],"right_children":[2,4,-1,-1,-1],"split_conditions":[-5.6166446E-1,-9.0246516E-1,-6.8411425E-2,1.17477424E-1,-1.9160792E-2],"split_indices":[1,6,0,0,0],"split_type":[0,0,0,0,0],"sum_hessian":[4.9543934E0,3.2405136E0,1.7138797E0,1.1163412E0,2.1241724E0],"tree_param":{"num_deleted":"0","num_feature":"22","num_nodes":"5","size_leaf_vector":"1"}},{"base_weights":[6.718685E-3,-6.9025E-2,1.5042987E-1,-6.7853376E-2,1.0290709E-1],"categories":[],"categories_nodes":[],"categories_segments":[],"categories_sizes":[],"default_left":[0,0,0,0,0],"id":37,"left_children":[1,-1,3,-1,-1],"loss_changes":[2.3480833E-1,0E0,3.869813E-1,0E0,0E0],"parents":[2147483647,0,0,2,2],"right_children":[2,-1,4,-1,-1],"split_conditions":[-6.2893206E-1,-6.9025E-2,-2.2694193E-1,-6.7853376E-2,1.0290709E-1],"split_indices":[21,0,16,0,0],"split_type":[0,0,0,0,0],"sum_hessian":[4.8827643E0,1.6171206E0,3.2656438E0,1.0459538E0,2.21969E0],"tree_param":{"num_deleted":"0","num_feature":"22","num_nodes":"5","size_leaf_vector":"1"}},{"base_weights":[-5.299536E-4,-7.815869E-2,1.4420633E-1,-3.775064E-2,1.3391675E-1],"categories":[],"categories_nodes":[],"categories_segments":[],"categories_sizes":[],"default_left":[0,0,0,0,0],"id":38,"left_children":[1,-1,3,-1,-1],"loss_changes":[2.5368476E-1,0E0,4.0974775E-1,0E0,0E0],"parents":[2147483647,0,0,2,2],"right_children":[2,-1,4,-1,-1],"split_conditions":[-2.3354024E-1,-7.815869E-2,-8.94027E-1,-3.775064E-2,1.3391675E-1],"split_indices":[17,0,5,0,0],"split_type":[0,0,0,0,0],"sum_hessian":[4.742956E0,1.4100208E0,3.3329353E0,2.0682495E0,1.2646859E0],"tree_param":{"num_deleted":"0","num_feature":"22","num_nodes":"5","size_leaf_vector":"1"}},{"base_weights":[3.8913556E-3,-1.3696663E-1,6.637021E-2,-1.2681611E-1,4.6663E-2],"categories":[],"categories_nodes":[],"categories_segments":[],"categories_sizes":[],"default_left":[0,0,0,0,0],"id":39,"left_children":[1,3,-1,-1,-1],"loss_changes":[2.0218492E-1,4.021225E-1,0E0,0E0,0E0],"parents":[2147483647,0,0,1,1],"right_children":[2,4,-1,-1,-1],"split_conditions":[-9.5572226E-2,-4.1544825E-2,6.637021E-2,-1.2681611E-1,4.6663E-2],"split_indices":[19,17,0,0,0],"split_type":[0,0,0,0,0],"sum_hessian":[4.6144476E0,3.0242612E0,1.5901864E0,1.3046232E0,1.7196381E0],"tree_param":{"num_deleted":"0","num_feature":"22","num_nodes":"5","size_leaf_vector":"1"}},{"base_weights":[-2.9349356E-4,6.996334E-2,-1.3857165E-1,3.8044363E-2,-9.440583E-2],"categories":[],"categories_nodes":[],"categories_segments":[],"categories_sizes":[],"default_left":[0,0,0,0,0],"id":40,"left_children":[1,-1,3,-1,-1],"loss_changes":[2.0982629E-1,0E0,2.3060586E-1,0E0,0E0],"parents":[2147483647,0,0,2,2],"right_children":[2,-1,4,-1,-1],"split_conditions":[-8.181818E-1,6.996334E-2,-9.009113E-1,3.8044363E-2,-9.440583E-2],"split_indices":[4,0,12,0,0],"split_type":[0,0,0,0,0],"sum_hessian":[4.497602E0,1.4174597E0,3.0801425E0,1.340332E0,1.7398103E0],"tree_param":{"num_deleted":"0","num_feature":"22","num_nodes":"5","size_leaf_vector":"1"}},{"base_weights":[2.1946032E-3,-6.0314696E-2,1.5957567E-1,1.0496497E-1,-4.8856404E-2],"categories":[],"categories_nodes":[],"categories_segments":[],"categories_sizes":[],"default_left":[0,0,0,0,0],"id":41,"left_children":[1,-1,3,-1,-1],"loss_changes":[2.0588517E-1,0E0,2.790949E-1,0E0,0E0],"parents":[2147483647,0,0,2,2],"right_children":[2,-1,4,-1,-1],"split_conditions":[-9.731356E-1,-6.0314696E-2,-7.7382463E-1,1.0496497E-1,-4.8856404E-2],"split_indices":[14,0,3,0,0],"split_type":[0,0,0,0,0],"sum_hessian":[4.4335923E0,1.8137851E0,2.6198072E0,1.5938991E0,1.0259082E0],"tree_param":{"num_deleted":"0","num_feature":"22","num_nodes":"5","size_leaf_vector":"1"}},{"base_weights":[1.3440634E-3,-6.4221025E-2,1.3456185E-1,1.1963236E-1,-4.9347546E-2],"categories":[],"categories_nodes":[],"categories_segments":[],"categories_sizes":[],"default_left":[0,0,0,0,0],"id":42,"left_children":[1,-1,3,-1,-1],"loss_changes":[1.8169719E-1,0E0,3.7422174E-1,0E0,0E0],"parents":[2147483647,0,0,2,2],"right_children":[2,-1,4,-1,-1],"split_conditions":[-4.558933E-1,-6.4221025E-2,-9.007581E-1,1.1963236E-1,-4.9347546E-2],"split_indices":[20,0,12,0,0],"split_type":[0,0,0,0,0],"sum_hessian":[4.327789E0,1.4218037E0,2.905985E0,1.3658276E0,1.5401576E0],"tree_param":{"num_deleted":"0","num_feature":"22","num_nodes":"5","size_leaf_vector":"1"}},{"base_weights":[2.7686239E-3,-1.4912523E-1,6.692482E-2,4.4658322E-2,-1.0508205E-1],"categories":[],"categories_nodes":[],"categories_segments":[],"categories_sizes":[],"default_left":[0,0,0,0,0],"id":43,"left_children":[1,3,-1,-1,-1],"loss_changes":[2.084416E-1,2.737862E-1,0E0,0E0,0E0],"parents":[2147483647,0,0,1,1],"right_children":[2,4,-1,-1,-1],"split_conditions":[-8.8342965E-1,-9.072427E-1,6.692482E-2,4.4658322E-2,-1.0508205E-1],"split_indices":[5,3,0,0,0],"split_type":[0,0,0,0,0],"sum_hessian":[4.234655E0,2.697801E0,1.5368539E0,1.1919535E0,1.5058476E0],"tree_param":{"num_deleted":"0","num_feature":"22","num_nodes":"5","size_leaf_vector":"1"}},{"base_weights":[2.9227387E-3,-1.4993073E-1,7.034889E-2,3.7470292E-2,-1.1892198E-1],"categories":[],"categories_nodes":[],"categories_segments":[],"categories_sizes":[],"default_left":[0,0,0,0,0],"id":44,"left_children":[1,3,-1,-1,-1],"loss_changes":[2.1688963E-1,3.0033088E-1,0E0,0E0,0E0],"parents":[2147483647,0,0,1,1],"right_children":[2,4,-1,-1,-1],"split_conditions":[-9.5572226E-2,-5.9998775E-1,7.034889E-2,3.7470292E-2,-1.1892198E-1],"split_indices":[19,1,0,0,0],"split_type":[0,0,0,0,0],"sum_hessian":[4.134117E0,2.7027106E0,1.4314066E0,1.5110615E0,1.1916492E0],"tree_param":{"num_deleted":"0","num_feature":"22","num_nodes":"5","size_leaf_vector":"1"}},{"base_weights":[-7.085527E-4,-1.5243156E-1,5.7180233E-2,4.224015E-2,-1.0811762E-1],"categories":[],"categories_nodes":[],"categories_segments":[],"categories_sizes":[],"default_left":[0,0,0,0,0],"id":45,"left_children":[1,3,-1,-1,-1],"loss_changes":[1.7466204E-1,2.5523162E-1,0E0,0E0,0E0],"parents":[2147483647,0,0,1,1],"right_children":[2,4,-1,-1,-1],"split_conditions":[-8.94027E-1,-9.072427E-1,5.7180233E-2,4.224015E-2,-1.0811762E-1],"split_indices":[5,3,0,0,0],"split_type":[0,0,0,0,0],"sum_hessian":[4.0164795E0,2.3533285E0,1.6631511E0,1.11047E0,1.2428585E0],"tree_param":{"num_deleted":"0","num_feature":"22","num_nodes":"5","size_leaf_vector":"1"}},{"base_weights":[-2.7062513E-3,-1.4314169E-1,6.411436E-2,-1.13615006E-1,3.4394324E-2],"categories":[],"categories_nodes":[],"categories_segments":[],"categories_sizes":[],"default_left":[0,0,0,0,0],"id":46,"left_children":[1,3,-1,-1,-1],"loss_changes":[1.8028893E-1,2.6118895E-1,0E0,0E0,0E0],"parents":[2147483647,0,0,1,1],"right_children":[2,4,-1,-1,-1],"split_conditions":[-9.5572226E-2,-4.1544825E-2,6.411436E-2,-1.13615006E-1,3.4394324E-2],"split_indices":[19,17,0,0,0],"split_type":[0,0,0,0,0],"sum_hessian":[3.9253693E0,2.5859451E0,1.3394241E0,1.1060832E0,1.479862E0],"tree_param":{"num_deleted":"0","num_feature":"22","num_nodes":"5","size_leaf_vector":"1"}},{"base_weights":[-5.5453116E-3,-6.546223E-2,1.1657966E-1,-1.8410455E-2,8.782594E-2],"categories":[],"categories_nodes":[],"categories_segments":[],"categories_sizes":[],"default_left":[0,0,0,0,0],"id":47,"left_children":[1,-1,3,-1,-1],"loss_changes":[1.5091923E-1,0E0,1.3461252E-1,0E0,0E0],"parents":[2147483647,0,0,2,2],"right_children":[2,-1,4,-1,-1],"split_conditions":[-2.2363068E-1,-6.546223E-2,-4.4082853E-1,-1.8410455E-2,8.782594E-2],"split_indices":[19,0,0,0,0],"split_type":[0,0,0,0,0],"sum_hessian":[3.831503E0,1.1106753E0,2.7208276E0,1.6777948E0,1.0430328E0],"tree_param":{"num_deleted":"0","num_feature":"22","num_nodes":"5","size_leaf_vector":"1"}},{"base_weights":[-2.8259167E-3,1.1690293E-1,-6.6942304E-2,-4.5315918E-2,9.178747E-2],"categories":[],"categories_nodes":[],"categories_segments":[],"categories_sizes":[],"default_left":[0,0,0,0,0],"id":48,"left_children":[1,3,-1,-1,-1],"loss_changes":[1.5158048E-1,2.3560928E-1,0E0,0E0,0E0],"parents":[2147483647,0,0,1,1],"right_children":[2,4,-1,-1,-1],"split_conditions":[2.6613185E-1,-6.630301E-1,-6.6942304E-2,-4.5315918E-2,9.178747E-2],"split_indices":[0,0,0,0,0],"split_type":[0,0,0,0,0],"sum_hessian":[3.7575366E0,2.7386289E0,1.0189077E0,1.216063E0,1.5225658E0],"tree_param":{"num_deleted":"0","num_feature":"22","num_nodes":"5","size_leaf_vector":"1"}},{"base_weights":[-6.012106E-3,-6.1496917E-2,1.2269371E-1,-3.848182E-2,9.485518E-2],"categories":[],"categories_nodes":[],"categories_segments":[],"categories_sizes":[],"default_left":[0,0,0,0,0],"id":49,"left_children":[1,-1,3,-1,-1],"loss_changes":[1.4462267E-1,0E0,2.084937E-1,0E0,0E0],"parents":[2147483647,0,0,2,2],"right_children":[2,-1,4,-1,-1],"split_conditions":[-6.2893206E-1,-6.1496917E-2,-3.42829E-2,-3.848182E-2,9.485518E-2],"split_indices":[21,0,16,0,0],"split_type":[0,0,0,0,0],"sum_hessian":[3.6651192E0,1.2067691E0,2.45835E0,1.2169559E0,1.241394E0],"tree_param":{"num_deleted":"0","num_feature":"22","num_nodes":"5","size_leaf_vector":"1"}},{"base_weights":[-5.0240187E-3,-1.311332E-1,5.406165E-2,3.163795E-2,-9.756348E-2],"categories":[],"categories_nodes":[],"categories_segments":[],"categories_sizes":[],"default_left":[0,0,0,0,0],"id":50,"left_children":[1,3,-1,-1,-1],"loss_changes":[1.308097E-1,1.8621959E-1,0E0,0E0,0E0],"parents":[2147483647,0,0,1,1],"right_children":[2,4,-1,-1,-1],"split_conditions":[-8.8342965E-1,-9.0246516E-1,5.406165E-2,3.163795E-2,-9.756348E-2],"split_indices":[5,6,0,0,0],"split_type":[0,0,0,0,0],"sum_hessian":[3.588301E0,2.308597E0,1.279704E0,1.2461178E0,1.0624791E0],"tree_param":{"num_deleted":"0","num_feature":"22","num_nodes":"5","size_leaf_vector":"1"}},{"base_weights":[-6.509512E-3,1.2030648E-1,-5.4410994E-2,-1.913385E-2,7.247026E-2],"categories":[],"categories_nodes":[],"categories_segments":[],"categories_sizes":[],"default_left":[0,0,0,0,0],"id":51,"left_children":[1,3,-1,-1,-1],"loss_changes":[1.2206724E-1,8.7319836E-2,0E0,0E0,0E0],"parents":[2147483647,0,0,1,1],"right_children":[2,4,-1,-1,-1],"split_conditions":[-5.7234454E-1,3.9096156E-1,-5.4410994E-2,-1.913385E-2,7.247026E-2],"split_indices":[1,15,0,0,0],"split_type":[0,0,0,0,0],"sum_hessian":[3.5207126E0,2.2215438E0,1.299169E0,1.0704812E0,1.1510625E0],"tree_param":{"num_deleted":"0","num_feature":"22","num_nodes":"5","size_leaf_vector":"1"}},{"base_weights":[-4.7158776E-3,-5.2360404E-2,1.3091333E-1,-2.1549463E-2,8.151197E-2],"categories":[],"categories_nodes":[],"categories_segments":[],"categories_sizes":[],"default_left":[0,0,0,0,0],"id":52,"left_children":[1,-1,3,-1,-1],"loss_changes":[1.2605074E-1,0E0,1.0693755E-1,0E0,0E0],"parents":[2147483647,0,0,2,2],"right_children":[2,-1,4,-1,-1],"split_conditions":[-9.731356E-1,-5.2360404E-2,-1.3138331E-1,-2.1549463E-2,8.151197E-2],"split_indices":[14,0,17,0,0],"split_type":[0,0,0,0,0],"sum_hessian":[3.4807258E0,1.4181877E0,2.0625381E0,1.0460355E0,1.0165025E0],"tree_param":{"num_deleted":"0","num_feature":"22","num_nodes":"5","size_leaf_vector":"1"}},{"base_weights":[-1.3826161E-3,-5.3568322E-2,1.1243718E-1,-3.373798E-2,8.082353E-2],"categories":[],"categories_nodes":[],"categories_segments":[],"categories_sizes":[],"default_left":[0,0,0,0,0],"id":53,"left_children":[1,-1,3,-1,-1],"loss_changes":[1.0925878E-1,0E0,1.4701702E-1,0E0,0E0],"parents":[2147483647,0,0,2,2],"right_children":[2,-1,4,-1,-1],"split_conditions":[-6.2893206E-1,-5.3568322E-2,-6.630301E-1,-3.373798E-2,8.082353E-2],"split_indices":[21,0,0,0,0],"split_type":[0,0,0,0,0],"sum_hessian":[3.4222968E0,1.1161025E0,2.3061943E0,1.0645685E0,1.2416259E0],"tree_param":{"num_deleted":"0","num_feature":"22","num_nodes":"5","size_leaf_vector":"1"}},{"base_weights":[-2.1639687E-3,5.2247122E-2,-1.0770276E-1,-7.475024E-2,2.0160437E-2],"categories":[],"categories_nodes":[],"categories_segments":[],"categories_sizes":[],"default_left":[0,0,0,0,0],"id":54,"left_children":[1,-1,3,-1,-1],"loss_changes":[9.9776715E-2,0E0,9.942219E-2,0E0,0E0],"parents":[2147483647,0,0,2,2],"right_children":[2,-1,4,-1,-1],"split_conditions":[-8.181818E-1,5.2247122E-2,-3.42829E-2,-7.475024E-2,2.0160437E-2],"split_indices":[4,0,16,0,0],"split_type":[0,0,0,0,0],"sum_hessian":[3.3538492E0,1.0123575E0,2.3414917E0,1.0597548E0,1.2817367E0],"tree_param":{"num_deleted":"0","num_feature":"22","num_nodes":"5","size_leaf_vector":"1"}},{"base_weights":[-2.1818737E-3,-4.1873E-2,4.2392552E-2],"categories":[],"categories_nodes":[],"categories_segments":[],"categories_sizes":[],"default_left":[0,0,0],"id":55,"left_children":[1,-1,-1],"loss_changes":[1.0481483E-1,0E0,0E0],"parents":[2147483647,0,0],"right_children":[2,-1,-1],"split_conditions":[-5.18868E-1,-4.1873E-2,4.2392552E-2],"split_indices":[21,0,0],"split_type":[0,0,0],"sum_hessian":[3.3161147E0,1.7079729E0,1.6081417E0],"tree_param":{"num_deleted":"0","num_feature":"22","num_nodes":"3","size_leaf_vector":"1"}},{"base_weights":[-1.3978237E-3,1.0968536E-1,-4.7732826E-2,-1.8400203E-2,6.6650726E-2],"categories":[],"categories_nodes":[],"categories_segments":[],"categories_sizes":[],"default_left":[0,0,0,0,0],"id":56,"left_children":[1,3,-1,-1,-1],"loss_changes":[9.263591E-2,7.3452055E-2,0E0,0E0,0E0],"parents":[2147483647,0,0,1,1],"right_children":[2,4,-1,-1,-1],"split_conditions":[-5.6166446E-1,-8.8517714E-1,-4.7732826E-2,-1.8400203E-2,6.6650726E-2],"split_indices":[1,1,0,0,0],"split_type":[0,0,0,0,0],"sum_hessian":[3.2915394E0,2.1099374E0,1.181602E0,1.0175668E0,1.0923706E0],"tree_param":{"num_deleted":"0","num_feature":"22","num_nodes":"5","size_leaf_vector":"1"}},{"base_weights":[-7.1979774E-4,-1.18745774E-1,4.9232375E-2,-8.064569E-2,2.6433928E-2],"categories":[],"categories_nodes":[],"categories_segments":[],"categories_sizes":[],"default_left":[0,0,0,0,0],"id":57,"left_children":[1,3,-1,-1,-1],"loss_changes":[1.022199E-1,1.1863126E-1,0E0,0E0,0E0],"parents":[2147483647,0,0,1,1],"right_children":[2,4,-1,-1,-1],"split_conditions":[-8.8342965E-1,-4.2932057E-1,4.9232375E-2,-8.064569E-2,2.6433928E-2],"split_indices":[5,20,0,0,0],"split_type":[0,0,0,0,0],"sum_hessian":[3.2527502E0,2.0583973E0,1.1943529E0,1.0193472E0,1.0390501E0],"tree_param":{"num_deleted":"0","num_feature":"22","num_nodes":"5","size_leaf_vector":"1"}},{"base_weights":[-1.9052244E-3,4.033604E-2,-4.2415828E-2],"categories":[],"categories_nodes":[],"categories_segments":[],"categories_sizes":[],"default_left":[0,0,0],"id":58,"left_children":[1,-1,-1],"loss_changes":[9.886237E-2,0E0,0E0],"parents":[2147483647,0,0],"right_children":[2,-1,-1],"split_conditions":[-9.007581E-1,4.033604E-2,-4.2415828E-2],"split_indices":[12,0,0],"split_type":[0,0,0],"sum_hessian":[3.1984713E0,1.635563E0,1.5629083E0],"tree_param":{"num_deleted":"0","num_feature":"22","num_nodes":"3","size_leaf_vector":"1"}},{"base_weights":[-1.8245004E-3,-1.1347406E-1,4.597935E-2,-4.760429E-2,-3.5601521E-3],"categories":[],"categories_nodes":[],"categories_segments":[],"categories_sizes":[],"default_left":[0,0,0,0,0],"id":59,"left_children":[1,3,-1,-1,-1],"loss_changes":[8.9849964E-2,1.1931855E-2,0E0,0E0,0E0],"parents":[2147483647,0,0,1,1],"right_children":[2,4,-1,-1,-1],"split_conditions":[-8.8342965E-1,-9.7364485E-1,4.597935E-2,-4.760429E-2,-3.5601521E-3],"split_indices":[5,14,0,0,0],"split_type":[0,0,0,0,0],"sum_hessian":[3.1845706E0,2.0076091E0,1.1769614E0,1.0006747E0,1.0069343E0],"tree_param":{"num_deleted":"0","num_feature":"22","num_nodes":"5","size_leaf_vector":"1"}},{"base_weights":[-2.5316314E-3,3.3114366E-2,-4.5999628E-2],"categories":[],"categories_nodes":[],"categories_segments":[],"categories_sizes":[],"default_left":[0,0,0],"id":60,"left_children":[1,-1,-1],"loss_changes":[8.765091E-2,0E0,0E0],"parents":[2147483647,0,0],"right_children":[2,-1,-1],"split_conditions":[-5.7234454E-1,3.3114366E-2,-4.5999628E-2],"split_indices":[1,0,0],"split_type":[0,0,0],"sum_hessian":[3.1536763E0,1.9566516E0,1.1970248E0],"tree_param":{"num_deleted":"0","num_feature":"22","num_nodes":"3","size_leaf_vector":"1"}},{"base_weights":[-4.9147424E-3,-3.7618764E-2,3.751562E-2],"categories":[],"categories_nodes":[],"categories_segments":[],"categories_sizes":[],"default_left":[0,0,0],"id":61,"left_children":[1,-1,-1],"loss_changes":[8.0427565E-2,0E0,0E0],"parents":[2147483647,0,0],"right_children":[2,-1,-1],"split_conditions":[-4.4082853E-1,-3.7618764E-2,3.751562E-2],"split_indices":[0,0,0],"split_type":[0,0,0],"sum_hessian":[3.1349013E0,1.6450686E0,1.4898328E0],"tree_param":{"num_deleted":"0","num_feature":"22","num_nodes":"3","size_leaf_vector":"1"}},{"base_weights":[-3.4718176E-3,-1.0702569E-1,4.489905E-2,2.5528144E-2,-7.427571E-2],"categories":[],"categories_nodes":[],"categories_segments":[],"categories_sizes":[],"default_left":[0,0,0,0,0],"id":62,"left_children":[1,3,-1,-1,-1],"loss_changes":[8.1284724E-2,1.0311887E-1,0E0,0E0,0E0],"parents":[2147483647,0,0,1,1],"right_children":[2,4,-1,-1,-1],"split_conditions":[-9.5572226E-2,-6.1463606E-1,4.489905E-2,2.5528144E-2,-7.427571E-2],"split_indices":[19,1,0,0,0],"split_type":[0,0,0,0,0],"sum_hessian":[3.1157706E0,2.0384345E0,1.0773361E0,1.0279821E0,1.0104525E0],"tree_param":{"num_deleted":"0","num_feature":"22","num_nodes":"5","size_leaf_vector":"1"}},{"base_weights":[-3.5684598E-3,-3.37618E-2,4.49149E-2],"categories":[],"categories_nodes":[],"categories_segments":[],"categories_sizes":[],"default_left":[0,0,0],"id":63,"left_children":[1,-1,-1],"loss_changes":[8.4862806E-2,0E0,0E0],"parents":[2147483647,0,0],"right_children":[2,-1,-1],"split_conditions":[-8.8342965E-1,-3.37618E-2,4.49149E-2],"split_indices":[5,0,0],"split_type":[0,0,0],"sum_hessian":[3.0718114E0,1.9507966E0,1.121015E0],"tree_param":{"num_deleted":"0","num_feature":"22","num_nodes":"3","size_leaf_vector":"1"}},{"base_weights":[2.8597956E-4,4.0636837E-2,-4.154374E-2],"categories":[],"categories_nodes":[],"categories_segments":[],"categories_sizes":[],"default_left":[0,0,0],"id":64,"left_children":[1,-1,-1],"loss_changes":[9.468888E-2,0E0,0E0],"parents":[2147483647,0,0],"right_children":[2,-1,-1],"split_conditions":[-9.007581E-1,4.0636837E-2,-4.154374E-2],"split_indices":[12,0,0],"split_type":[0,0,0],"sum_hessian":[3.0481648E0,1.5561631E0,1.4920018E0],"tree_param":{"num_deleted":"0","num_feature":"22","num_nodes":"3","size_leaf_vector":"1"}},{"base_weights":[-1.3577074E-5,-3.0464431E-2,4.232979E-2],"categories":[],"categories_nodes":[],"categories_segments":[],"categories_sizes":[],"default_left":[0,0,0],"id":65,"left_children":[1,-1,-1],"loss_changes":[7.21305E-2,0E0,0E0],"parents":[2147483647,0,0],"right_children":[2,-1,-1],"split_conditions":[-8.8342965E-1,-3.0464431E-2,4.232979E-2],"split_indices":[5,0,0],"split_type":[0,0,0],"sum_hessian":[3.0342572E0,1.9276428E0,1.1066142E0],"tree_param":{"num_deleted":"0","num_feature":"22","num_nodes":"3","size_leaf_vector":"1"}},{"base_weights":[2.9877832E-3,3.732156E-2,-3.695307E-2],"categories":[],"categories_nodes":[],"categories_segments":[],"categories_sizes":[],"default_left":[0,0,0],"id":66,"left_children":[1,-1,-1],"loss_changes":[7.680406E-2,0E0,0E0],"parents":[2147483647,0,0],"right_children":[2,-1,-1],"split_conditions":[-9.007581E-1,3.732156E-2,-3.695307E-2],"split_indices":[12,0,0],"split_type":[0,0,0],"sum_hessian":[3.0134392E0,1.5427169E0,1.4707223E0],"tree_param":{"num_deleted":"0","num_feature":"22","num_nodes":"3","size_leaf_vector":"1"}},{"base_weights":[2.2003273E-3,-3.0479064E-2,4.5895882E-2],"categories":[],"categories_nodes":[],"categories_segments":[],"categories_sizes":[],"default_left":[0,0,0],"id":67,"left_children":[1,-1,-1],"loss_changes":[7.818473E-2,0E0,0E0],"parents":[2147483647,0,0],"right_children":[2,-1,-1],"split_conditions":[-9.5572226E-2,-3.0479064E-2,4.5895882E-2],"split_indices":[19,0,0],"split_type":[0,0,0],"sum_hessian":[3.0023746E0,1.9714776E0,1.0308971E0],"tree_param":{"num_deleted":"0","num_feature":"22","num_nodes":"3","size_leaf_vector":"1"}},{"base_weights":[5.4734237E-3,-2.8737493E-2,4.1878555E-2],"categories":[],"categories_nodes":[],"categories_segments":[],"categories_sizes":[],"default_left":[0,0,0],"id":68,"left_children":[1,-1,-1],"loss_changes":[6.7442335E-2,0E0,0E0],"parents":[2147483647,0,0],"right_children":[2,-1,-1],"split_conditions":[-2.7994972E-1,-2.8737493E-2,4.1878555E-2],"split_indices":[20,0,0],"split_type":[0,0,0],"sum_hessian":[2.9810696E0,1.8614314E0,1.1196382E0],"tree_param":{"num_deleted":"0","num_feature":"22","num_nodes":"3","size_leaf_vector":"1"}},{"base_weights":[7.2038784E-3,3.3035465E-2,-4.0535722E-2],"categories":[],"categories_nodes":[],"categories_segments":[],"categories_sizes":[],"default_left":[0,0,0],"id":69,"left_children":[1,-1,-1],"loss_changes":[7.292944E-2,0E0,0E0],"parents":[2147483647,0,0],"right_children":[2,-1,-1],"split_conditions":[-5.7234454E-1,3.3035465E-2,-4.0535722E-2],"split_indices":[1,0,0],"split_type":[0,0,0],"sum_hessian":[2.9632752E0,1.8510513E0,1.1122239E0],"tree_param":{"num_deleted":"0","num_feature":"22","num_nodes":"3","size_leaf_vector":"1"}},{"base_weights":[3.1574033E-3,-3.3439476E-2,3.7169002E-2],"categories":[],"categories_nodes":[],"categories_segments":[],"categories_sizes":[],"default_left":[0,0,0],"id":70,"left_children":[1,-1,-1],"loss_changes":[6.843783E-2,0E0,0E0],"parents":[2147483647,0,0],"right_children":[2,-1,-1],"split_conditions":[-4.4082853E-1,-3.3439476E-2,3.7169002E-2],"split_indices":[0,0,0],"split_type":[0,0,0],"sum_hessian":[2.9472556E0,1.5513315E0,1.3959241E0],"tree_param":{"num_deleted":"0","num_feature":"22","num_nodes":"3","size_leaf_vector":"1"}},{"base_weights":[3.184613E-3,-3.3895522E-2,3.7403565E-2],"categories":[],"categories_nodes":[],"categories_segments":[],"categories_sizes":[],"default_left":[0,0,0],"id":71,"left_children":[1,-1,-1],"loss_changes":[6.955892E-2,0E0,0E0],"parents":[2147483647,0,0],"right_children":[2,-1,-1],"split_conditions":[-5.18868E-1,-3.3895522E-2,3.7403565E-2],"split_indices":[21,0,0],"split_type":[0,0,0],"sum_hessian":[2.9303138E0,1.533782E0,1.3965317E0],"tree_param":{"num_deleted":"0","num_feature":"22","num_nodes":"3","size_leaf_vector":"1"}},{"base_weights":[3.1501418E-3,3.3885352E-2,-3.3461317E-2],"categories":[],"categories_nodes":[],"categories_segments":[],"categories_sizes":[],"default_left":[0,0,0],"id":72,"left_children":[1,-1,-1],"loss_changes":[6.1884254E-2,0E0,0E0],"parents":[2147483647,0,0],"right_children":[2,-1,-1],"split_conditions":[-9.007581E-1,3.3885352E-2,-3.3461317E-2],"split_indices":[12,0,0],"split_type":[0,0,0],"sum_hessian":[2.9138052E0,1.4963539E0,1.4174514E0],"tree_param":{"num_deleted":"0","num_feature":"22","num_nodes":"3","size_leaf_vector":"1"}},{"base_weights":[2.3262026E-3,-3.9194293E-2,3.259116E-2],"categories":[],"categories_nodes":[],"categories_segments":[],"categories_sizes":[],"default_left":[0,0,0],"id":73,"left_children":[1,-1,-1],"loss_changes":[6.939286E-2,0E0,0E0],"parents":[2147483647,0,0],"right_children":[2,-1,-1],"split_conditions":[-9.731356E-1,-3.9194293E-2,3.259116E-2],"split_indices":[14,0,0],"split_type":[0,0,0],"sum_hessian":[2.90474E0,1.1888307E0,1.7159094E0],"tree_param":{"num_deleted":"0","num_feature":"22","num_nodes":"3","size_leaf_vector":"1"}},{"base_weights":[-7.529167E-5,2.8851384E-2,-3.97392E-2],"categories":[],"categories_nodes":[],"categories_segments":[],"categories_sizes":[],"default_left":[0,0,0],"id":74,"left_children":[1,-1,-1],"loss_changes":[6.221747E-2,0E0,0E0],"parents":[2147483647,0,0],"right_children":[2,-1,-1],"split_conditions":[-5.6166446E-1,2.8851384E-2,-3.97392E-2],"split_indices":[1,0,0],"split_type":[0,0,0],"sum_hessian":[2.8830955E0,1.8278314E0,1.0552642E0],"tree_param":{"num_deleted":"0","num_feature":"22","num_nodes":"3","size_leaf_vector":"1"}},{"base_weights":[-2.8817907E-3,-3.066226E-2,4.0667884E-2],"categories":[],"categories_nodes":[],"categories_segments":[],"categories_sizes":[],"default_left":[0,0,0],"id":75,"left_children":[1,-1,-1],"loss_changes":[6.705998E-2,0E0,0E0],"parents":[2147483647,0,0],"right_children":[2,-1,-1],"split_conditions":[-8.8342965E-1,-3.066226E-2,4.0667884E-2],"split_indices":[5,0,0],"split_type":[0,0,0],"sum_hessian":[2.8692143E0,1.8230102E0,1.0462041E0],"tree_param":{"num_deleted":"0","num_feature":"22","num_nodes":"3","size_leaf_vector":"1"}},{"base_weights":[6.020195E-4,-3.5464067E-2,3.0856498E-2],"categories":[],"categories_nodes":[],"categories_segments":[],"categories_sizes":[],"default_left":[0,0,0],"id":76,"left_children":[1,-1,-1],"loss_changes":[5.8935136E-2,0E0,0E0],"parents":[2147483647,0,0],"right_children":[2,-1,-1],"split_conditions":[3.3666584E-1,-3.5464067E-2,3.0856498E-2],"split_indices":[15,0,0],"split_type":[0,0,0],"sum_hessian":[2.8501391E0,1.246105E0,1.6040342E0],"tree_param":{"num_deleted":"0","num_feature":"22","num_nodes":"3","size_leaf_vector":"1"}},{"base_weights":[-7.7804964E-4,-3.288616E-2,3.4495622E-2],"categories":[],"categories_nodes":[],"categories_segments":[],"categories_sizes":[],"default_left":[0,0,0],"id":77,"left_children":[1,-1,-1],"loss_changes":[6.1000578E-2,0E0,0E0],"parents":[2147483647,0,0],"right_children":[2,-1,-1],"split_conditions":[-4.4082853E-1,-3.288616E-2,3.4495622E-2],"split_indices":[0,0,0],"split_type":[0,0,0],"sum_hessian":[2.8409443E0,1.4915922E0,1.3493522E0],"tree_param":{"num_deleted":"0","num_feature":"22","num_nodes":"3","size_leaf_vector":"1"}},{"base_weights":[-1.184243E-4,2.8561236E-2,-3.7585992E-2],"categories":[],"categories_nodes":[],"categories_segments":[],"categories_sizes":[],"default_left":[0,0,0],"id":78,"left_children":[1,-1,-1],"loss_changes":[5.7574075E-2,0E0,0E0],"parents":[2147483647,0,0],"right_children":[2,-1,-1],"split_conditions":[-5.7234454E-1,2.8561236E-2,-3.7585992E-2],"split_indices":[1,0,0],"split_type":[0,0,0],"sum_hessian":[2.825742E0,1.7400148E0,1.0857272E0],"tree_param":{"num_deleted":"0","num_feature":"22","num_nodes":"3","size_leaf_vector":"1"}},{"base_weights":[-2.4614856E-3,-2.9509455E-2,3.9228715E-2],"categories":[],"categories_nodes":[],"categories_segments":[],"categories_sizes":[],"default_left":[0,0,0],"id":79,"left_children":[1,-1,-1],"loss_changes":[6.157948E-2,0E0,0E0],"parents":[2147483647,0,0],"right_children":[2,-1,-1],"split_conditions":[-8.8342965E-1,-2.9509455E-2,3.9228715E-2],"split_indices":[5,0,0],"split_type":[0,0,0],"sum_hessian":[2.812986E0,1.7877225E0,1.0252634E0],"tree_param":{"num_deleted":"0","num_feature":"22","num_nodes":"3","size_leaf_vector":"1"}},{"base_weights":[8.570229E-4,3.734141E-2,-2.709812E-2],"categories":[],"categories_nodes":[],"categories_segments":[],"categories_sizes":[],"default_left":[0,0,0],"id":80,"left_children":[1,-1,-1],"loss_changes":[5.4021608E-2,0E0,0E0],"parents":[2147483647,0,0],"right_children":[2,-1,-1],"split_conditions":[-8.8691235E-1,3.734141E-2,-2.709812E-2],"split_indices":[3,0,0],"split_type":[0,0,0],"sum_hessian":[2.7952247E0,1.0316311E0,1.7635936E0],"tree_param":{"num_deleted":"0","num_feature":"22","num_nodes":"3","size_leaf_vector":"1"}},{"base_weights":[3.3203494E-3,-2.8662415E-2,3.6092542E-2],"categories":[],"categories_nodes":[],"categories_segments":[],"categories_sizes":[],"default_left":[0,0,0],"id":81,"left_children":[1,-1,-1],"loss_changes":[5.530468E-2,0E0,0E0],"parents":[2147483647,0,0],"right_children":[2,-1,-1],"split_conditions":[-8.94027E-1,-2.8662415E-2,3.6092542E-2],"split_indices":[5,0,0],"split_type":[0,0,0],"sum_hessian":[2.787963E0,1.6104032E0,1.1775597E0],"tree_param":{"num_deleted":"0","num_feature":"22","num_nodes":"3","size_leaf_vector":"1"}},{"base_weights":[4.3265605E-3,3.2293677E-2,-3.1141369E-2],"categories":[],"categories_nodes":[],"categories_segments":[],"categories_sizes":[],"default_left":[0,0,0],"id":82,"left_children":[1,-1,-1],"loss_changes":[5.3307552E-2,0E0,0E0],"parents":[2147483647,0,0],"right_children":[2,-1,-1],"split_conditions":[-9.007581E-1,3.2293677E-2,-3.1141369E-2],"split_indices":[12,0,0],"split_type":[0,0,0],"sum_hessian":[2.7713428E0,1.4195021E0,1.3518406E0],"tree_param":{"num_deleted":"0","num_feature":"22","num_nodes":"3","size_leaf_vector":"1"}},{"base_weights":[3.347532E-3,-3.470188E-2,2.931368E-2],"categories":[],"categories_nodes":[],"categories_segments":[],"categories_sizes":[],"default_left":[0,0,0],"id":83,"left_children":[1,-1,-1],"loss_changes":[5.35718E-2,0E0,0E0],"parents":[2147483647,0,0],"right_children":[2,-1,-1],"split_conditions":[-9.731356E-1,-3.470188E-2,2.931368E-2],"split_indices":[14,0,0],"split_type":[0,0,0],"sum_hessian":[2.763501E0,1.1222373E0,1.6412636E0],"tree_param":{"num_deleted":"0","num_feature":"22","num_nodes":"3","size_leaf_vector":"1"}},{"base_weights":[9.078167E-4,-3.7894174E-2,2.808173E-2],"categories":[],"categories_nodes":[],"categories_segments":[],"categories_sizes":[],"default_left":[0,0,0],"id":84,"left_children":[1,-1,-1],"loss_changes":[5.600134E-2,0E0,0E0],"parents":[2147483647,0,0],"right_children":[2,-1,-1],"split_conditions":[-4.1544825E-2,-3.7894174E-2,2.808173E-2],"split_indices":[17,0,0],"split_type":[0,0,0],"sum_hessian":[2.746028E0,1.0046177E0,1.7414104E0],"tree_param":{"num_deleted":"0","num_feature":"22","num_nodes":"3","size_leaf_vector":"1"}},{"base_weights":[-1.9985922E-3,-2.9019607E-2,3.2661494E-2],"categories":[],"categories_nodes":[],"categories_segments":[],"categories_sizes":[],"default_left":[0,0,0],"id":85,"left_children":[1,-1,-1],"loss_changes":[4.977268E-2,0E0,0E0],"parents":[2147483647,0,0],"right_children":[2,-1,-1],"split_conditions":[-3.044636E-1,-2.9019607E-2,3.2661494E-2],"split_indices":[20,0,0],"split_type":[0,0,0],"sum_hessian":[2.7361586E0,1.5442173E0,1.1919413E0],"tree_param":{"num_deleted":"0","num_feature":"22","num_nodes":"3","size_leaf_vector":"1"}},{"base_weights":[-4.1535002E-4,2.8976446E-2,-3.7581917E-2],"categories":[],"categories_nodes":[],"categories_segments":[],"categories_sizes":[],"default_left":[0,0,0],"id":86,"left_children":[1,-1,-1],"loss_changes":[5.7181593E-2,0E0,0E0],"parents":[2147483647,0,0],"right_children":[2,-1,-1],"split_conditions":[-5.7234454E-1,2.8976446E-2,-3.7581917E-2],"split_indices":[1,0,0],"split_type":[0,0,0],"sum_hessian":[2.722181E0,1.6593926E0,1.0627886E0],"tree_param":{"num_deleted":"0","num_feature":"22","num_nodes":"3","size_leaf_vector":"1"}},{"base_weights":[-2.6219718E-3,-2.9917175E-2,3.0206472E-2],"categories":[],"categories_nodes":[],"categories_segments":[],"categories_sizes":[],"default_left":[0,0,0],"id":87,"left_children":[1,-1,-1],"loss_changes":[4.725811E-2,0E0,0E0],"parents":[2147483647,0,0],"right_children":[2,-1,-1],"split_conditions":[-4.4082853E-1,-2.9917175E-2,3.0206472E-2],"split_indices":[0,0,0],"split_type":[0,0,0],"sum_hessian":[2.709977E0,1.4148571E0,1.2951196E0],"tree_param":{"num_deleted":"0","num_feature":"22","num_nodes":"3","size_leaf_vector":"1"}},{"base_weights":[-1.7601877E-3,-3.181854E-2,3.1981923E-2],"categories":[],"categories_nodes":[],"categories_segments":[],"categories_sizes":[],"default_left":[0,0,0],"id":88,"left_children":[1,-1,-1],"loss_changes":[5.3098794E-2,0E0,0E0],"parents":[2147483647,0,0],"right_children":[2,-1,-1],"split_conditions":[-5.18868E-1,-3.181854E-2,3.1981923E-2],"split_indices":[21,0,0],"split_type":[0,0,0],"sum_hessian":[2.6974807E0,1.3853581E0,1.3121227E0],"tree_param":{"num_deleted":"0","num_feature":"22","num_nodes":"3","size_leaf_vector":"1"}},{"base_weights":[-1.1890664E-3,-3.2627318E-2,2.7859911E-2],"categories":[],"categories_nodes":[],"categories_segments":[],"categories_sizes":[],"default_left":[0,0,0],"id":89,"left_children":[1,-1,-1],"loss_changes":[4.7379322E-2,0E0,0E0],"parents":[2147483647,0,0],"right_children":[2,-1,-1],"split_conditions":[3.3666584E-1,-3.2627318E-2,2.7859911E-2],"split_indices":[15,0,0],"split_type":[0,0,0],"sum_hessian":[2.6846738E0,1.1794517E0,1.5052222E0],"tree_param":{"num_deleted":"0","num_feature":"22","num_nodes":"3","size_leaf_vector":"1"}},{"base_weights":[-2.1320125E-3,-3.6128215E-2,2.8400311E-2],"categories":[],"categories_nodes":[],"categories_segments":[],"categories_sizes":[],"default_left":[0,0,0],"id":90,"left_children":[1,-1,-1],"loss_changes":[5.3509135E-2,0E0,0E0],"parents":[2147483647,0,0],"right_children":[2,-1,-1],"split_conditions":[-9.731356E-1,-3.6128215E-2,2.8400311E-2],"split_indices":[14,0,0],"split_type":[0,0,0],"sum_hessian":[2.677295E0,1.0950214E0,1.5822735E0],"tree_param":{"num_deleted":"0","num_feature":"22","num_nodes":"3","size_leaf_vector":"1"}},{"base_weights":[-3.6269354E-3,2.5408288E-2,-3.4444608E-2],"categories":[],"categories_nodes":[],"categories_segments":[],"categories_sizes":[],"default_left":[0,0,0],"id":91,"left_children":[1,-1,-1],"loss_changes":[4.5667756E-2,0E0,0E0],"parents":[2147483647,0,0],"right_children":[2,-1,-1],"split_conditions":[-5.7234454E-1,2.5408288E-2,-3.4444608E-2],"split_indices":[1,0,0],"split_type":[0,0,0],"sum_hessian":[2.6601286E0,1.6153084E0,1.0448201E0],"tree_param":{"num_deleted":"0","num_feature":"22","num_nodes":"3","size_leaf_vector":"1"}},{"base_weights":[-5.0323745E-3,-3.0509414E-2,2.9828832E-2],"categories":[],"categories_nodes":[],"categories_segments":[],"categories_sizes":[],"default_left":[0,0,0],"id":92,"left_children":[1,-1,-1],"loss_changes":[4.6970993E-2,0E0,0E0],"parents":[2147483647,0,0],"right_children":[2,-1,-1],"split_conditions":[-4.4082853E-1,-3.0509414E-2,2.9828832E-2],"split_indices":[0,0,0],"split_type":[0,0,0],"sum_hessian":[2.6501963E0,1.3902032E0,1.2599932E0],"tree_param":{"num_deleted":"0","num_feature":"22","num_nodes":"3","size_leaf_vector":"1"}},{"base_weights":[-3.7212304E-3,-2.9645532E-2,3.0902276E-2],"categories":[],"categories_nodes":[],"categories_segments":[],"categories_sizes":[],"default_left":[0,0,0],"id":93,"left_children":[1,-1,-1],"loss_changes":[4.710244E-2,0E0,0E0],"parents":[2147483647,0,0],"right_children":[2,-1,-1],"split_conditions":[-3.42829E-2,-2.9645532E-2,3.0902276E-2],"split_indices":[16,0,0],"split_type":[0,0,0],"sum_hessian":[2.6379116E0,1.4341637E0,1.203748E0],"tree_param":{"num_deleted":"0","num_feature":"22","num_nodes":"3","size_leaf_vector":"1"}},{"base_weights":[-2.2621816E-3,-3.0969184E-2,2.6393225E-2],"categories":[],"categories_nodes":[],"categories_segments":[],"categories_sizes":[],"default_left":[0,0,0],"id":94,"left_children":[1,-1,-1],"loss_changes":[4.214242E-2,0E0,0E0],"parents":[2147483647,0,0],"right_children":[2,-1,-1],"split_conditions":[3.3666584E-1,-3.0969184E-2,2.6393225E-2],"split_indices":[15,0,0],"split_type":[0,0,0],"sum_hessian":[2.6284912E0,1.1725606E0,1.4559307E0],"tree_param":{"num_deleted":"0","num_feature":"22","num_nodes":"3","size_leaf_vector":"1"}},{"base_weights":[-2.8526757E-3,-2.9754372E-2,3.366372E-2],"categories":[],"categories_nodes":[],"categories_segments":[],"categories_sizes":[],"default_left":[0,0,0],"id":95,"left_children":[1,-1,-1],"loss_changes":[5.127451E-2,0E0,0E0],"parents":[2147483647,0,0],"right_children":[2,-1,-1],"split_conditions":[-8.94027E-1,-2.9754372E-2,3.366372E-2],"split_indices":[5,0,0],"split_type":[0,0,0],"sum_hessian":[2.6218839E0,1.5022736E0,1.1196102E0],"tree_param":{"num_deleted":"0","num_feature":"22","num_nodes":"3","size_leaf_vector":"1"}},{"base_weights":[-9.1109E-4,2.7943848E-2,-2.8805051E-2],"categories":[],"categories_nodes":[],"categories_segments":[],"categories_sizes":[],"default_left":[0,0,0],"id":96,"left_children":[1,-1,-1],"loss_changes":[4.120627E-2,0E0,0E0],"parents":[2147483647,0,0],"right_children":[2,-1,-1],"split_conditions":[-9.007581E-1,2.7943848E-2,-2.8805051E-2],"split_indices":[12,0,0],"split_type":[0,0,0],"sum_hessian":[2.6066282E0,1.3208973E0,1.2857307E0],"tree_param":{"num_deleted":"0","num_feature":"22","num_nodes":"3","size_leaf_vector":"1"}},{"base_weights":[-8.7669166E-4,-3.2901704E-2,2.628504E-2],"categories":[],"categories_nodes":[],"categories_segments":[],"categories_sizes":[],"default_left":[0,0,0],"id":97,"left_children":[1,-1,-1],"loss_changes":[4.427355E-2,0E0,0E0],"parents":[2147483647,0,0],"right_children":[2,-1,-1],"split_conditions":[-9.731356E-1,-3.2901704E-2,2.628504E-2],"split_indices":[14,0,0],"split_type":[0,0,0],"sum_hessian":[2.6004846E0,1.0590906E0,1.541394E0],"tree_param":{"num_deleted":"0","num_feature":"22","num_nodes":"3","size_leaf_vector":"1"}},{"base_weights":[-2.4732698E-3,2.4798404E-2,-3.2546334E-2],"categories":[],"categories_nodes":[],"categories_segments":[],"categories_sizes":[],"default_left":[0,0,0],"id":98,"left_children":[1,-1,-1],"loss_changes":[4.133274E-2,0E0,0E0],"parents":[2147483647,0,0],"right_children":[2,-1,-1],"split_conditions":[-5.7234454E-1,2.4798404E-2,-3.2546334E-2],"split_indices":[1,0,0],"split_type":[0,0,0],"sum_hessian":[2.5859487E0,1.556383E0,1.0295657E0],"tree_param":{"num_deleted":"0","num_feature":"22","num_nodes":"3","size_leaf_vector":"1"}},{"base_weights":[-3.9109937E-3,-2.9292654E-2,3.1689335E-2],"categories":[],"categories_nodes":[],"categories_segments":[],"categories_sizes":[],"default_left":[0,0,0],"id":99,"left_children":[1,-1,-1],"loss_changes":[4.703917E-2,0E0,0E0],"parents":[2147483647,0,0],"right_children":[2,-1,-1],"split_conditions":[-3.044636E-1,-2.9292654E-2,3.1689335E-2],"split_indices":[20,0,0],"split_type":[0,0,0],"sum_hessian":[2.5768275E0,1.4471703E0,1.1296573E0],"tree_param":{"num_deleted":"0","num_feature":"22","num_nodes":"3","size_leaf_vector":"1"}}]},"name":"gbtree"},"learner_model_param":{"base_score":"7.2085726E-1","boost_from_average":"1","num_class":"0","num_feature":"22","num_target":"1"},"objective":{"name":"binary:logistic","reg_loss_param":{"scale_pos_weight":"1"}}},"version":[2,0,3]}